digraph Tree {
node [shape=box, style="filled, rounded", color="black", fontname=helvetica] ;
edge [fontname=helvetica] ;
0 [label="Road <= 1.15\ngini = 0.51\nsamples = 252\nvalue = [85, 14, 153]\nclass = Town", fillcolor="#8139e568"] ;
1 [label="General <= 0.43\ngini = 0.03\nsamples = 154\nvalue = [2, 0, 152]\nclass = Town", fillcolor="#8139e5fc"] ;
0 -> 1 [labeldistance=2.5, labelangle=45, headlabel="True"] ;
2 [label="gini = 0.0\nsamples = 151\nvalue = [0, 0, 151]\nclass = Town", fillcolor="#8139e5ff"] ;
1 -> 2 ;
3 [label="Water <= 2.33\ngini = 0.44\nsamples = 3\nvalue = [2, 0, 1]\nclass = City", fillcolor="#e581397f"] ;
1 -> 3 ;
4 [label="gini = 0.0\nsamples = 2\nvalue = [2, 0, 0]\nclass = City", fillcolor="#e58139ff"] ;
3 -> 4 ;
5 [label="gini = 0.0\nsamples = 1\nvalue = [0, 0, 1]\nclass = Town", fillcolor="#8139e5ff"] ;
3 -> 5 ;
6 [label="General <= 0.28\ngini = 0.26\nsamples = 98\nvalue = [83, 14, 1]\nclass = City", fillcolor="#e58139d1"] ;
0 -> 6 [labeldistance=2.5, labelangle=-45, headlabel="False"] ;
7 [label="Highway <= 0.06\ngini = 0.34\nsamples = 15\nvalue = [2, 12, 1]\nclass = Uninhabited", fillcolor="#39e581c4"] ;
6 -> 7 ;
8 [label="gini = 0.0\nsamples = 1\nvalue = [0, 0, 1]\nclass = Town", fillcolor="#8139e5ff"] ;
7 -> 8 ;
9 [label="General <= 0.19\ngini = 0.24\nsamples = 14\nvalue = [2, 12, 0]\nclass = Uninhabited", fillcolor="#39e581d4"] ;
7 -> 9 ;
10 [label="gini = 0.0\nsamples = 8\nvalue = [0, 8, 0]\nclass = Uninhabited", fillcolor="#39e581ff"] ;
9 -> 10 ;
11 [label="Water <= 1.02\ngini = 0.44\nsamples = 6\nvalue = [2, 4, 0]\nclass = Uninhabited", fillcolor="#39e5817f"] ;
9 -> 11 ;
12 [label="gini = 0.0\nsamples = 2\nvalue = [2, 0, 0]\nclass = City", fillcolor="#e58139ff"] ;
11 -> 12 ;
13 [label="gini = 0.0\nsamples = 4\nvalue = [0, 4, 0]\nclass = Uninhabited", fillcolor="#39e581ff"] ;
11 -> 13 ;
14 [label="Road <= 2.73\ngini = 0.05\nsamples = 83\nvalue = [81, 2, 0]\nclass = City", fillcolor="#e58139f9"] ;
6 -> 14 ;
15 [label="gini = 0.0\nsamples = 1\nvalue = [0, 1, 0]\nclass = Uninhabited", fillcolor="#39e581ff"] ;
14 -> 15 ;
16 [label="Highway <= 0.83\ngini = 0.02\nsamples = 82\nvalue = [81, 1, 0]\nclass = City", fillcolor="#e58139fc"] ;
14 -> 16 ;
17 [label="gini = 0.0\nsamples = 77\nvalue = [77, 0, 0]\nclass = City", fillcolor="#e58139ff"] ;
16 -> 17 ;
18 [label="Greenspaces <= 0.03\ngini = 0.32\nsamples = 5\nvalue = [4, 1, 0]\nclass = City", fillcolor="#e58139bf"] ;
16 -> 18 ;
19 [label="gini = 0.0\nsamples = 1\nvalue = [0, 1, 0]\nclass = Uninhabited", fillcolor="#39e581ff"] ;
18 -> 19 ;
20 [label="gini = 0.0\nsamples = 4\nvalue = [4, 0, 0]\nclass = City", fillcolor="#e58139ff"] ;
18 -> 20 ;
}